#SOURCE	#TARGET	#INTENSITY	#CORR_COEFF
1	3	-1.0	-0.583067334232972
1	10	-2.0	-0.597382536824175
1	12	-3.0	-0.569716907787772
1	16	-2.0	-0.533813244136908
1	21	-2.0	-0.573397777926021
1	33	-11.0	-0.597623463672812
1	39	-2.0	-0.574769279636613
1	44	-1.0	-0.548218649520811
2	45	-3.0	-0.494258099023906
2	48	-1.0	-0.55878850229113
2	49	-1.0	-0.568651741598425
2	50	-1.0	-0.474724423883792
2	52	-5.0	-0.535110981806234
2	53	-1.0	-0.593702359462924
2	54	-7.0	-0.510575197144164
2	56	-1.0	-0.49284928476536
2	57	-4.0	-0.487168748767073
2	58	-11.0	-0.589972130763794
2	60	-7.0	-0.574501221589393
2	61	-7.0	-0.577654831468679
2	62	-3.0	-0.530955641971165
2	63	-2.0	-0.482617428554401
2	65	-10.0	-0.530218529363341
2	66	-2.0	-0.534198896329592
2	67	-3.0	-0.530455329826388
2	68	-3.0	-0.522491546732681
2	69	-3.0	-0.521408198062497
2	70	-5.0	-0.560471337409933
3	52	-1.0	-0.579973594690688
3	54	-1.0	-0.518372893525334
3	57	-1.0	-0.57820987240984
3	58	-1.0	-0.579467798941338
4	61	-2.0	-0.590863814020619
4	64	-2.0	-0.584094505741448
4	65	-2.0	-0.578450833585644
4	66	-2.0	-0.596554553804971
45	5	-5.0	-0.579265258385215
45	6	-12.0	-0.57462358362638
45	7	-47.0	-0.587790391010825
45	9	-25.0	-0.557973508593638
45	15	-13.0	-0.56858944645376
45	17	-44.0	-0.564057015161299
45	18	-7.0	-0.552535241093391
45	19	-2.0	-0.538102785406724
45	20	-3.0	-0.525086650208912
45	22	-1.0	-0.53555449742649
45	24	-1.0	-0.473464066272387
45	25	-18.0	-0.54499407092965
45	27	-3.0	-0.580606271391465
45	28	-18.0	-0.50556148039708
45	31	-18.0	-0.507039776639418
45	32	-2.0	-0.494039836178871
45	33	-1.0	-0.474403109128889
45	34	-35.0	-0.572180342660342
45	35	-10.0	-0.534426517675012
45	41	-6.0	-0.545582225429801
45	42	-18.0	-0.562012581330319
45	43	-3.0	-0.547259020217907
5	71	-1.0	-0.581017915950796
5	72	-4.0	-0.59475816707623
5	73	-3.0	-0.562921378898102
5	54	-1.0	-0.502143699922281
5	58	-1.0	-0.518202430356552
5	62	-2.0	-0.499978437598503
5	75	-1.0	-0.553610672388636
5	64	-1.0	-0.493812393991287
5	65	-2.0	-0.549504950778487
5	76	-3.0	-0.597995374087439
5	79	-1.0	-0.54317030499821
5	69	-1.0	-0.54001612642834
46	6	-3.0	-0.55777833936096
46	9	-4.0	-0.578328556006184
46	18	-3.0	-0.589225586265959
46	19	-1.0	-0.578770433224425
46	28	-2.0	-0.585318181296914
46	33	-1.0	-0.58324432866343
46	34	-4.0	-0.592464693915165
46	41	-2.0	-0.585421734236682
46	43	-1.0	-0.589042973169874
6	83	-1.0	-0.480413539529292
6	71	-3.0	-0.56308325818387
6	47	-26.0	-0.522986596787216
6	49	-1.0	-0.530778762393309
6	84	-3.0	-0.599402499047801
6	50	-5.0	-0.445822065549516
6	51	-22.0	-0.594483751846967
6	85	-1.0	-0.521016994513592
6	52	-23.0	-0.555261914918747
6	73	-3.0	-0.557977903186231
6	53	-2.0	-0.419835229962527
6	54	-34.0	-0.584481292676018
6	56	-3.0	-0.539469799735854
6	57	-24.0	-0.589558458705544
6	86	-2.0	-0.577474625931155
6	59	-11.0	-0.46636501523822
6	62	-17.0	-0.573292252034002
6	63	-3.0	-0.508901052321906
6	75	-2.0	-0.548836310151252
6	88	-3.0	-0.557128698401892
6	65	-37.0	-0.563288433841994
6	76	-3.0	-0.583996898382066
6	89	-3.0	-0.593260227742957
6	78	-2.0	-0.558715665732677
6	67	-8.0	-0.537840462190337
6	90	-3.0	-0.480920209402858
6	68	-6.0	-0.454668088360397
6	91	-1.0	-0.514667547060352
6	92	-3.0	-0.525998878520386
6	79	-2.0	-0.573385977104224
6	69	-17.0	-0.547294032695108
82	31	-1.0	-0.5425788642743
82	34	-1.0	-0.585638263036033
82	36	-1.0	-0.578901421604223
82	40	-1.0	-0.581544254418078
7	83	-1.0	-0.483166104994733
7	71	-6.0	-0.561340572498728
7	47	-78.0	-0.58443091455421
7	49	-4.0	-0.547978137490538
7	84	-5.0	-0.568525643456599
7	50	-21.0	-0.462967694162153
7	85	-3.0	-0.537467908500297
7	95	-1.0	-0.479003630784761
7	52	-66.0	-0.589233089367457
7	73	-5.0	-0.542324557160318
7	53	-5.0	-0.439814258710179
7	96	-1.0	-0.56153013450182
7	56	-10.0	-0.594002608499873
7	86	-4.0	-0.570377916588492
7	59	-29.0	-0.525112155585467
7	62	-49.0	-0.550441532440249
7	97	-1.0	-0.489536706988631
7	98	-1.0	-0.574208000464345
7	99	-2.0	-0.45200957075054
7	63	-14.0	-0.530520563674679
7	75	-4.0	-0.565866219371002
7	88	-5.0	-0.550094374642063
7	65	-87.0	-0.58215271864722
7	78	-2.0	-0.56760317558628
7	67	-16.0	-0.514245346454846
7	90	-5.0	-0.477618390560619
7	68	-29.0	-0.473214926634016
7	101	-2.0	-0.540751718422938
7	103	-1.0	-0.461229514802093
7	91	-2.0	-0.510697106948479
7	92	-5.0	-0.512680096580898
7	104	-1.0	-0.492711235037772
7	79	-4.0	-0.574078002720269
7	69	-54.0	-0.564026397649843
7	105	-1.0	-0.493840161863735
7	106	-1.0	-0.591544618335442
83	9	-2.0	-0.452376936297459
83	11	-5.0	-0.541107133228458
83	14	-7.0	-0.532921134140636
83	17	-2.0	-0.484324892443728
83	25	-1.0	-0.473389956663235
83	29	-8.0	-0.564582120021545
83	31	-1.0	-0.450148920208288
83	34	-1.0	-0.48755007509912
83	36	-4.0	-0.560517873254388
83	41	-1.0	-0.486748756519105
83	42	-1.0	-0.484049720221314
71	9	-8.0	-0.561737728670586
71	11	-26.0	-0.544615520275931
71	17	-8.0	-0.504543395750185
71	18	-1.0	-0.513014442550357
71	20	-1.0	-0.487274161024929
71	25	-4.0	-0.506140762570345
71	27	-1.0	-0.548407175773102
71	28	-1.0	-0.505084433577109
71	29	-47.0	-0.596434426690646
71	31	-2.0	-0.449118822419654
71	34	-7.0	-0.551742208034601
71	35	-1.0	-0.513966265370456
71	36	-18.0	-0.589552320844305
71	41	-1.0	-0.518138351692468
71	42	-4.0	-0.544612283593705
8	47	-1.0	-0.481316779606083
8	51	-1.0	-0.554655141100684
8	52	-1.0	-0.506256921713119
8	54	-1.0	-0.538149149744027
8	58	-1.0	-0.517676940818624
8	64	-1.0	-0.489594638184342
8	65	-1.0	-0.575771940463506
47	9	-22.0	-0.527963921073921
47	14	-151.0	-0.550977834008975
47	17	-44.0	-0.474716568465062
47	19	-6.0	-0.565199823602687
47	28	-39.0	-0.562110138831866
47	34	-35.0	-0.533876337609183
47	36	-88.0	-0.59185931519923
47	41	-5.0	-0.539585415143046
47	42	-28.0	-0.54796197678363
47	43	-3.0	-0.561270798167786
48	9	-7.0	-0.547371974442244
48	14	-22.0	-0.593034639829312
48	17	-13.0	-0.573618338668113
48	18	-1.0	-0.539193958366299
48	20	-2.0	-0.5571943209727
48	24	-1.0	-0.543891856162204
48	25	-4.0	-0.525363190222291
48	28	-8.0	-0.584943631501104
48	31	-4.0	-0.549984051070532
48	32	-2.0	-0.566560418305166
48	33	-3.0	-0.539513035875858
48	34	-11.0	-0.582239478741777
48	35	-1.0	-0.550261469070673
48	41	-1.0	-0.554089849571272
48	43	-1.0	-0.537220973504564
72	11	-5.0	-0.59086229508595
49	9	-5.0	-0.558293233324963
49	11	-14.0	-0.552520286524585
49	15	-3.0	-0.548528612328862
49	17	-6.0	-0.539350392960426
49	18	-3.0	-0.578217866729261
49	19	-1.0	-0.528311140258037
49	25	-5.0	-0.555486505687513
49	28	-3.0	-0.545365823812202
49	31	-6.0	-0.574140110245655
49	33	-1.0	-0.516817129462426
49	34	-9.0	-0.571744183590297
49	35	-3.0	-0.555603939596561
49	36	-14.0	-0.566942779278878
49	41	-1.0	-0.534747409996888
49	42	-1.0	-0.510946278078771
49	43	-2.0	-0.511044074990346
84	9	-6.0	-0.577936262577882
84	17	-6.0	-0.571736993532365
84	20	-1.0	-0.518697019640382
84	25	-3.0	-0.566114148330194
84	28	-1.0	-0.52668578560905
84	31	-1.0	-0.489952891776827
84	34	-5.0	-0.580997929781544
84	41	-1.0	-0.553326691682149
84	42	-4.0	-0.571936012708078
50	9	-12.0	-0.451534362118438
50	11	-61.0	-0.503202154171596
50	14	-84.0	-0.505607792828429
50	15	-4.0	-0.474597014861896
50	17	-19.0	-0.440953153602614
50	18	-3.0	-0.557471758168929
50	19	-1.0	-0.452095877458103
50	25	-10.0	-0.497378781888408
50	28	-7.0	-0.416378122354579
50	29	-87.0	-0.562873396755778
50	31	-11.0	-0.447975302186501
50	33	-1.0	-0.480884858238389
50	34	-15.0	-0.471054660558907
50	35	-4.0	-0.492626463471856
50	36	-49.0	-0.540544624599492
50	41	-3.0	-0.466345119408064
50	42	-4.0	-0.427635034631655
50	43	-3.0	-0.462204810060973
51	10	-1.0	-0.578276442381135
51	17	-42.0	-0.579452382678121
51	19	-5.0	-0.556047673836511
51	32	-1.0	-0.554041609662402
51	33	-7.0	-0.590264891937661
51	37	-1.0	-0.590101829715025
51	41	-6.0	-0.562954877612917
51	42	-26.0	-0.571904792077949
51	43	-3.0	-0.567769335001969
85	11	-2.0	-0.454797479514093
85	14	-2.0	-0.525736151866918
85	15	-2.0	-0.476942041699602
85	17	-1.0	-0.480830100344575
85	25	-1.0	-0.403273628411554
85	28	-2.0	-0.505940396529119
85	29	-3.0	-0.480012642101645
85	31	-1.0	-0.435168381943011
85	34	-1.0	-0.466010872581396
85	36	-2.0	-0.510084213176403
85	42	-1.0	-0.510196687733217
9	95	-2.0	-0.493373775153092
9	52	-22.0	-0.52907925484976
9	73	-7.0	-0.523854456743438
9	53	-4.0	-0.470102828575789
9	54	-32.0	-0.542176631633801
9	56	-6.0	-0.51343797099825
9	57	-22.0	-0.551162824432338
9	86	-6.0	-0.563983879898325
9	59	-10.0	-0.485919748591174
9	107	-1.0	-0.517774850960014
9	62	-26.0	-0.595627450372421
9	97	-1.0	-0.40691221372046
9	99	-2.0	-0.446608398041587
9	63	-12.0	-0.514788995504044
9	75	-5.0	-0.529369983312026
9	88	-5.0	-0.533236582636706
9	65	-37.0	-0.594298285479425
9	76	-7.0	-0.564286796367849
9	89	-2.0	-0.564579636822361
9	100	-1.0	-0.595424433510496
9	78	-2.0	-0.586034966601775
9	67	-15.0	-0.511304223986902
9	90	-6.0	-0.454385717952251
9	68	-14.0	-0.467735346897456
9	101	-1.0	-0.49226691371183
9	103	-1.0	-0.503668620695392
9	91	-2.0	-0.484316967312962
9	92	-5.0	-0.464106983217214
9	79	-5.0	-0.511179388196916
9	69	-25.0	-0.528937828791527
9	105	-1.0	-0.43866831055338
9	108	-1.0	-0.519160520342602
10	52	-1.0	-0.53652522446725
10	54	-1.0	-0.508442989986368
10	58	-2.0	-0.565359910849271
10	60	-1.0	-0.5608856926971
10	65	-2.0	-0.550195269119815
10	66	-1.0	-0.598889960921243
10	70	-1.0	-0.571284225897784
95	11	-6.0	-0.468934211394026
95	14	-14.0	-0.576243409533211
95	15	-1.0	-0.470190939021816
95	17	-2.0	-0.498125787030595
95	18	-1.0	-0.50956701842055
95	25	-2.0	-0.487086950177793
95	28	-1.0	-0.441228469072321
95	29	-12.0	-0.560254488387985
95	31	-1.0	-0.465123029485819
95	34	-3.0	-0.490654858800247
95	35	-1.0	-0.479968457142706
95	36	-6.0	-0.573152248153314
95	43	-1.0	-0.474699796634794
52	13	-1.0	-0.517529423356131
52	14	-130.0	-0.567178274576942
52	17	-49.0	-0.50059674692238
52	18	-10.0	-0.546439336109183
52	19	-6.0	-0.584212274290626
52	20	-2.0	-0.555233007622914
52	22	-1.0	-0.544838517982923
52	24	-2.0	-0.506443470345568
52	25	-19.0	-0.534067959299781
52	28	-29.0	-0.545751482131825
52	30	-1.0	-0.467878297780407
52	31	-25.0	-0.567759123411877
52	32	-3.0	-0.546272553512965
52	33	-5.0	-0.51234829212488
52	34	-36.0	-0.563112346577286
52	35	-13.0	-0.582021843164294
52	37	-1.0	-0.51906052638417
52	39	-1.0	-0.530962565337072
52	41	-7.0	-0.562712787280426
52	42	-26.0	-0.545550415954889
52	43	-3.0	-0.518003584286025
73	11	-15.0	-0.562389935765574
73	14	-22.0	-0.581003478961849
73	17	-7.0	-0.514981827702283
73	20	-1.0	-0.48357119141239
73	25	-3.0	-0.504166190606664
73	27	-3.0	-0.547159503876072
73	28	-1.0	-0.462013134266455
73	31	-1.0	-0.481318147542015
73	34	-5.0	-0.521042489284501
73	36	-13.0	-0.585039682446454
73	41	-1.0	-0.478232088879231
73	42	-4.0	-0.526574947416525
11	109	-2.0	-0.526921951371419
11	110	-1.0	-0.597048849000914
11	111	-1.0	-0.473133869111193
11	53	-23.0	-0.55187048616549
11	96	-1.0	-0.556863303128436
11	112	-1.0	-0.433563527170709
11	113	-1.0	-0.560094080356092
11	114	-1.0	-0.5134732528876
11	56	-24.0	-0.547900385804319
11	57	-121.0	-0.588448407306686
11	86	-8.0	-0.597136587797528
11	59	-61.0	-0.559204875240461
11	115	-1.0	-0.583866380511169
11	107	-4.0	-0.570855769551272
11	116	-2.0	-0.457395657608085
11	97	-2.0	-0.407885967934419
11	98	-2.0	-0.511334520661806
11	99	-15.0	-0.437831539928404
11	63	-54.0	-0.565604050906932
11	117	-2.0	-0.446176514477392
11	75	-8.0	-0.530423350370829
11	118	-1.0	-0.576354195540933
11	119	-1.0	-0.51934917238214
11	67	-50.0	-0.558738375747102
11	90	-17.0	-0.503937131559167
11	68	-88.0	-0.514784315952265
11	101	-3.0	-0.538100900598395
11	120	-2.0	-0.504763547756697
11	103	-9.0	-0.503340403186224
11	91	-2.0	-0.555483939028264
11	92	-8.0	-0.530914009688808
11	104	-4.0	-0.491664541361814
11	105	-1.0	-0.465725068371007
11	108	-1.0	-0.506639266567121
109	14	-4.0	-0.466606154932476
109	29	-6.0	-0.567070889776308
109	36	-2.0	-0.50810785319963
110	14	-1.0	-0.555335446669581
110	29	-1.0	-0.584658479208944
111	14	-1.0	-0.466971332357879
111	29	-1.0	-0.496124596354446
53	14	-29.0	-0.551078341690038
53	15	-1.0	-0.479134505771563
53	17	-6.0	-0.488235126177451
53	19	-1.0	-0.475894184698307
53	25	-5.0	-0.567347940469538
53	28	-1.0	-0.456715157348247
53	29	-26.0	-0.565664907690952
53	31	-6.0	-0.580912515963299
53	33	-1.0	-0.524006807800332
53	34	-5.0	-0.509449246441787
53	35	-3.0	-0.576683290356523
53	36	-20.0	-0.503594128232983
53	41	-2.0	-0.506122255193923
53	42	-1.0	-0.406469539916714
53	43	-1.0	-0.507075469078513
12	55	-2.0	-0.564559425404401
12	58	-3.0	-0.501910504141693
12	60	-2.0	-0.46691494350508
12	61	-2.0	-0.529274109204136
12	64	-3.0	-0.541618270792432
12	65	-2.0	-0.498389399729005
12	66	-2.0	-0.599575281383575
12	70	-2.0	-0.53735910168242
96	14	-1.0	-0.528248235288388
96	15	-1.0	-0.589138430869169
96	17	-1.0	-0.510656778886444
96	28	-1.0	-0.5031498494879
96	29	-1.0	-0.548222698715516
96	31	-1.0	-0.55496139339167
96	34	-1.0	-0.494216150177213
96	36	-1.0	-0.549321962162163
96	42	-1.0	-0.543265738947647
112	14	-1.0	-0.471834762903164
112	29	-1.0	-0.487027337740455
112	36	-1.0	-0.447756292888911
54	14	-196.0	-0.587156946117514
54	15	-33.0	-0.599251482086328
54	17	-73.0	-0.533454402571898
54	18	-10.0	-0.563517419372766
54	19	-7.0	-0.558218147537204
54	20	-4.0	-0.537079418742357
54	22	-1.0	-0.527295470354033
54	24	-4.0	-0.510167858012873
54	25	-30.0	-0.533575680468629
54	27	-1.0	-0.564331919268909
54	28	-43.0	-0.540591855697418
54	30	-2.0	-0.518057133705312
54	31	-31.0	-0.512952415556799
54	32	-5.0	-0.53269144474664
54	33	-7.0	-0.505290691907016
54	34	-50.0	-0.569492796197506
54	35	-15.0	-0.578929201531868
54	37	-2.0	-0.527133985494484
54	39	-2.0	-0.519316350498224
54	41	-8.0	-0.554380706737449
54	42	-48.0	-0.593906253989683
54	43	-4.0	-0.561144467241128
13	58	-3.0	-0.538174237418341
13	61	-1.0	-0.576119304347429
13	64	-2.0	-0.564759284588008
13	65	-1.0	-0.507171340023553
113	14	-1.0	-0.592566592108087
113	29	-1.0	-0.553718768742075
113	36	-1.0	-0.524804616624531
14	122	-1.0	-0.548022584787937
14	114	-1.0	-0.572818783320804
14	56	-29.0	-0.597380721742057
14	59	-78.0	-0.524375613900396
14	107	-4.0	-0.552999227558472
14	123	-2.0	-0.460254316021195
14	116	-4.0	-0.439612632763047
14	97	-4.0	-0.525853612960399
14	124	-1.0	-0.462832293735186
14	98	-2.0	-0.562276122465019
14	99	-22.0	-0.538467766470094
14	63	-68.0	-0.599945500173593
14	117	-3.0	-0.479202205932983
14	75	-14.0	-0.578376181791261
14	88	-11.0	-0.552500339483005
14	118	-1.0	-0.567789824449708
14	89	-7.0	-0.59247421988659
14	67	-55.0	-0.577770318690874
14	125	-1.0	-0.474995588592894
14	90	-26.0	-0.526613066905435
14	68	-105.0	-0.547229196066922
14	101	-3.0	-0.570189205170887
14	102	-1.0	-0.576335885898766
14	120	-4.0	-0.516577190247504
14	103	-12.0	-0.571003969706044
14	91	-3.0	-0.549460607616854
14	92	-15.0	-0.552033451135622
14	104	-2.0	-0.453740502821928
14	105	-4.0	-0.534038370116902
14	108	-1.0	-0.547247579489819
122	29	-3.0	-0.569887399033048
122	36	-1.0	-0.573575688804501
114	29	-2.0	-0.561831026142431
15	56	-3.0	-0.571756761424854
15	57	-22.0	-0.556876036202444
15	59	-14.0	-0.557817807641096
15	62	-17.0	-0.55480925291124
15	98	-1.0	-0.532835958203316
15	63	-3.0	-0.506637431592246
15	65	-34.0	-0.571376738595699
15	67	-5.0	-0.506935719004442
15	68	-11.0	-0.503055574203679
15	103	-1.0	-0.494036742875081
15	94	-3.0	-0.586797928482586
15	69	-14.0	-0.547378417427332
55	23	-2.0	-0.534946318658904
55	38	-2.0	-0.5926127184762
55	40	-3.0	-0.58800332280763
56	17	-8.0	-0.5585093740364
56	18	-3.0	-0.537179122189432
56	19	-1.0	-0.545525734297058
56	25	-5.0	-0.495343767317027
56	28	-5.0	-0.540958539584263
56	29	-29.0	-0.576271761794022
56	31	-7.0	-0.489650113400856
56	33	-1.0	-0.531837722668108
56	34	-8.0	-0.525716285793277
56	35	-3.0	-0.540091108519392
56	36	-21.0	-0.578148449128492
56	41	-2.0	-0.532455352249209
56	42	-2.0	-0.562532630121261
56	43	-2.0	-0.580172756514651
16	58	-1.0	-0.468164264896727
16	60	-1.0	-0.553932524484815
16	61	-1.0	-0.539273077104827
16	64	-1.0	-0.578610020072628
16	65	-1.0	-0.453057372374364
16	66	-1.0	-0.59133598195269
16	70	-1.0	-0.512777241905809
17	86	-6.0	-0.560940053975156
17	59	-20.0	-0.463843039437483
17	107	-1.0	-0.459018158974417
17	62	-51.0	-0.546829264469285
17	97	-1.0	-0.468674486693558
17	99	-4.0	-0.458416838321539
17	63	-20.0	-0.507445498348085
17	75	-5.0	-0.510483119189928
17	88	-6.0	-0.519505257776463
17	65	-85.0	-0.59722730633379
17	89	-4.0	-0.598544598298551
17	100	-1.0	-0.588093435502961
17	67	-18.0	-0.492570163001423
17	90	-7.0	-0.447494552488104
17	68	-30.0	-0.428848766289882
17	101	-1.0	-0.515408666747219
17	103	-1.0	-0.46182080307332
17	91	-1.0	-0.470953126505329
17	92	-4.0	-0.449545055751663
17	79	-5.0	-0.560657256513579
17	69	-50.0	-0.545176392127721
17	108	-1.0	-0.471395423689911
57	18	-6.0	-0.536084170082095
57	19	-1.0	-0.55987675620652
57	20	-4.0	-0.527557569142756
57	22	-1.0	-0.485002953185142
57	24	-5.0	-0.545726525947705
57	25	-17.0	-0.468577568455141
57	26	-1.0	-0.586018824558066
57	28	-29.0	-0.551499565242363
57	29	-123.0	-0.584082792018648
57	30	-3.0	-0.590996301997987
57	31	-28.0	-0.527451319547854
57	33	-3.0	-0.493470271819871
57	34	-34.0	-0.546903805032946
57	35	-10.0	-0.527562738705416
57	37	-4.0	-0.569656865394848
57	40	-2.0	-0.481780267139689
57	43	-4.0	-0.597639234775334
18	86	-1.0	-0.560506691264154
18	107	-1.0	-0.592998810718709
18	60	-8.0	-0.591959060069803
18	61	-9.0	-0.592979946173787
18	62	-7.0	-0.589325556927706
18	99	-2.0	-0.504455102544674
18	63	-3.0	-0.573818784970876
18	67	-6.0	-0.550362419483072
18	68	-6.0	-0.569230425391042
18	69	-8.0	-0.579942404775006
18	108	-1.0	-0.554130340561613
18	70	-5.0	-0.566059825067641
58	21	-2.0	-0.530665044152605
58	22	-1.0	-0.591170058141501
58	23	-2.0	-0.546399086838269
58	24	-5.0	-0.554387028436559
58	28	-51.0	-0.597976881842469
58	30	-4.0	-0.518929973977044
58	31	-42.0	-0.594180873792067
58	32	-8.0	-0.567303886605694
58	33	-9.0	-0.58139736966985
58	37	-6.0	-0.561873186935036
58	38	-2.0	-0.504799284623668
58	39	-2.0	-0.571332229404816
58	40	-2.0	-0.535402286782139
86	20	-1.0	-0.517644086487364
86	25	-3.0	-0.546937255253407
86	29	-17.0	-0.593801698255487
86	31	-2.0	-0.508550403206984
86	34	-5.0	-0.580830263194687
86	35	-1.0	-0.531779322864151
86	41	-1.0	-0.529400782177389
86	42	-3.0	-0.58527980700267
59	19	-2.0	-0.474921600895485
59	25	-14.0	-0.572495006514724
59	28	-18.0	-0.541223449338262
59	29	-80.0	-0.598910282244397
59	31	-17.0	-0.575670909285592
59	34	-18.0	-0.514761502767051
59	35	-8.0	-0.589119977562333
59	36	-45.0	-0.501451314906819
59	41	-3.0	-0.474305501997016
59	42	-11.0	-0.48407594526571
59	43	-2.0	-0.490418613000746
115	27	-1.0	-0.550417394059687
107	25	-1.0	-0.56470087318445
107	29	-4.0	-0.583364177256601
107	31	-1.0	-0.495317054018747
107	34	-1.0	-0.514646938050479
107	35	-1.0	-0.541982393022064
107	36	-2.0	-0.51411280113672
19	62	-2.0	-0.548427036045105
19	63	-1.0	-0.521467231044624
19	65	-6.0	-0.588089229404522
19	67	-2.0	-0.535115072104703
19	68	-1.0	-0.484128785721779
19	69	-2.0	-0.526589365614943
123	29	-2.0	-0.538363023867685
123	36	-1.0	-0.480028760991438
60	21	-2.0	-0.574509506508797
60	22	-1.0	-0.577280439730839
60	23	-2.0	-0.550152287116787
60	24	-7.0	-0.590351321834399
60	30	-5.0	-0.595622292640135
60	33	-4.0	-0.566106119869675
60	35	-13.0	-0.591097869860549
60	38	-2.0	-0.540573346571905
60	39	-2.0	-0.544684165146563
60	40	-2.0	-0.577529122311546
61	22	-1.0	-0.570650015173695
61	23	-2.0	-0.585797083693373
61	24	-3.0	-0.567996131206716
61	30	-3.0	-0.592338541078145
61	33	-1.0	-0.533442024086413
61	39	-1.0	-0.54191951898528
61	43	-2.0	-0.561266828740749
62	20	-2.0	-0.54630553688092
62	22	-1.0	-0.569377088537793
62	24	-2.0	-0.519365888801316
62	25	-24.0	-0.581726548119498
62	28	-25.0	-0.548679690339091
62	31	-26.0	-0.526047462438115
62	32	-1.0	-0.500618856105994
62	33	-1.0	-0.493445307289358
62	34	-40.0	-0.585945039145976
62	35	-11.0	-0.575346409579444
62	36	-98.0	-0.577178927239863
62	41	-7.0	-0.529209532863397
62	42	-20.0	-0.54714978163893
62	43	-4.0	-0.574603563534947
116	29	-4.0	-0.532675451044251
116	36	-1.0	-0.490736374594127
74	31	-1.0	-0.58010530847396
97	29	-4.0	-0.479845326572464
97	34	-1.0	-0.411827933055646
97	36	-2.0	-0.553324914947315
97	43	-1.0	-0.463458606239875
124	29	-1.0	-0.441227734903501
20	87	-1.0	-0.575598040614618
20	75	-1.0	-0.470443760472946
20	88	-1.0	-0.527114681561254
20	65	-7.0	-0.524548860557873
20	76	-2.0	-0.559955061357449
20	89	-2.0	-0.568658295346748
20	77	-1.0	-0.565261857413426
20	78	-1.0	-0.593273413929587
20	90	-1.0	-0.440469829133239
20	91	-1.0	-0.504940443575113
20	92	-1.0	-0.457190413749923
20	79	-1.0	-0.534970201552599
20	69	-3.0	-0.52944967227439
21	65	-2.0	-0.477053374740256
98	28	-1.0	-0.522522503004883
98	29	-2.0	-0.544639661747605
98	36	-2.0	-0.560037964777158
99	25	-2.0	-0.476178320362267
99	29	-22.0	-0.529625513834997
99	31	-2.0	-0.425811420278921
99	34	-3.0	-0.458127339809755
99	35	-1.0	-0.458446489660029
99	36	-12.0	-0.548225237668586
99	41	-1.0	-0.455917553511425
99	43	-1.0	-0.478360180815965
22	65	-1.0	-0.560634820553326
22	67	-1.0	-0.539467998670503
22	68	-1.0	-0.574312674423831
22	69	-1.0	-0.546347084878054
22	70	-1.0	-0.557285878159945
23	64	-2.0	-0.507353204116915
23	65	-2.0	-0.533229775697961
87	34	-1.0	-0.595026538182428
87	39	-1.0	-0.591243555128444
87	41	-1.0	-0.599336631515603
63	25	-11.0	-0.523859559068355
63	28	-6.0	-0.486830507239476
63	29	-65.0	-0.598581485954459
63	31	-12.0	-0.521815194500643
63	33	-1.0	-0.493796810252865
63	34	-16.0	-0.520218137056224
63	35	-5.0	-0.525294154197545
63	36	-44.0	-0.598181809728589
63	41	-3.0	-0.521451075596069
63	42	-4.0	-0.502162081761894
63	43	-4.0	-0.536744103095247
24	65	-4.0	-0.484304664809302
24	76	-1.0	-0.551684344199027
24	89	-2.0	-0.566491728183397
24	78	-1.0	-0.535173685864362
24	94	-1.0	-0.563858682421502
24	69	-1.0	-0.490538096042976
117	29	-2.0	-0.514187370850214
117	36	-2.0	-0.491923531603877
75	25	-2.0	-0.509728350442665
75	28	-1.0	-0.505524521327461
75	34	-4.0	-0.522163806043905
75	42	-3.0	-0.552986880127883
25	88	-3.0	-0.548306264793768
25	65	-36.0	-0.552129945217776
25	76	-2.0	-0.523759540948446
25	89	-1.0	-0.544032698114587
25	77	-1.0	-0.554653403720479
25	78	-1.0	-0.522893415499793
25	67	-11.0	-0.529121919101919
25	90	-3.0	-0.463626411578017
25	68	-15.0	-0.495040639368652
25	91	-1.0	-0.51067073294753
25	92	-3.0	-0.49483339193897
25	79	-2.0	-0.538177486654442
25	93	-1.0	-0.576070155857653
25	94	-2.0	-0.562478024191425
25	69	-20.0	-0.54397238768493
25	108	-1.0	-0.533115027793178
27	88	-1.0	-0.527813215260957
27	90	-1.0	-0.491875298035623
27	92	-1.0	-0.517101927401145
27	69	-1.0	-0.566834627971562
28	88	-1.0	-0.514154085702675
28	65	-45.0	-0.553405551374819
28	76	-1.0	-0.545885651484952
28	89	-3.0	-0.592595780782514
28	67	-7.0	-0.485515251009505
28	90	-1.0	-0.394655195104476
28	68	-14.0	-0.444318594466194
28	103	-1.0	-0.465697203494105
28	92	-1.0	-0.442989088059864
28	94	-3.0	-0.57793174073649
28	69	-20.0	-0.503110661583139
88	31	-1.0	-0.501869049738792
88	34	-4.0	-0.547288889116116
88	36	-10.0	-0.598098270912075
88	41	-1.0	-0.533369384268377
88	42	-4.0	-0.546178679742985
29	118	-1.0	-0.540156023376378
29	119	-1.0	-0.580788322089974
29	89	-6.0	-0.595531760865091
29	77	-5.0	-0.599825832334106
29	67	-55.0	-0.59029734290757
29	90	-33.0	-0.565254659315401
29	68	-101.0	-0.566540303330425
29	101	-3.0	-0.555730576347869
29	120	-4.0	-0.567790406618615
29	103	-12.0	-0.591834783687702
29	91	-3.0	-0.574669275212315
29	92	-23.0	-0.573341458173526
29	104	-2.0	-0.445934945402143
29	105	-8.0	-0.52823857909753
29	127	-1.0	-0.545851085703138
29	108	-1.0	-0.554729980869494
64	30	-3.0	-0.541248069117651
64	32	-7.0	-0.560226457594258
64	37	-6.0	-0.589221580022668
64	38	-2.0	-0.478121850307923
64	39	-1.0	-0.597785190700705
64	40	-2.0	-0.572993978107061
30	65	-3.0	-0.482616339768691
30	76	-1.0	-0.595779651468188
30	89	-1.0	-0.585242579665555
30	78	-1.0	-0.562633905123369
65	31	-38.0	-0.519169661324692
65	32	-5.0	-0.515894335767726
65	33	-8.0	-0.530585651638805
65	34	-59.0	-0.588689725047021
65	35	-16.0	-0.574495894889051
65	37	-4.0	-0.525520259520791
65	38	-2.0	-0.509397087156151
65	39	-1.0	-0.517985712877687
65	40	-2.0	-0.463621454755069
65	42	-46.0	-0.568424719315093
65	43	-4.0	-0.585290263477368
76	31	-1.0	-0.53646954285999
76	34	-5.0	-0.576959045182394
76	36	-8.0	-0.591796093415638
31	66	-3.0	-0.590357325300616
31	67	-11.0	-0.488000725248455
31	90	-1.0	-0.42365791191643
31	68	-18.0	-0.496366925985184
31	103	-1.0	-0.517067670893884
31	92	-1.0	-0.45996584762215
31	79	-1.0	-0.50604390375796
31	93	-1.0	-0.556339316984928
31	80	-1.0	-0.570007556516466
31	94	-2.0	-0.57727278383543
31	69	-21.0	-0.520174246211889
31	108	-1.0	-0.514195173431108
32	89	-3.0	-0.58192647592533
32	94	-2.0	-0.593553769059665
32	69	-2.0	-0.448722239214261
66	35	-1.0	-0.580949100037781
33	67	-1.0	-0.44972348033692
33	68	-2.0	-0.4633848155755
33	69	-1.0	-0.480815482316295
33	70	-1.0	-0.550438638573079
89	34	-3.0	-0.567081655049553
89	39	-1.0	-0.56686342483823
77	34	-1.0	-0.558716242907465
77	36	-2.0	-0.57281918108004
34	100	-1.0	-0.586016038404109
34	78	-1.0	-0.564728396190179
34	67	-18.0	-0.542580084810152
34	90	-5.0	-0.472207413842887
34	68	-23.0	-0.481596349949069
34	101	-1.0	-0.511770474224648
34	103	-1.0	-0.513830914663799
34	91	-1.0	-0.526960453202151
34	92	-4.0	-0.489749333673453
34	79	-4.0	-0.557932996225439
34	93	-1.0	-0.573345545657233
34	69	-39.0	-0.553622351635671
34	108	-1.0	-0.533295902102944
100	42	-1.0	-0.566261518825796
35	67	-6.0	-0.517133576452823
35	68	-9.0	-0.527037732262707
35	69	-10.0	-0.549233436258253
35	108	-1.0	-0.522807646057024
36	78	-2.0	-0.598970957143242
36	67	-38.0	-0.57215195971102
36	90	-15.0	-0.560933643859604
36	68	-66.0	-0.521151437610641
36	101	-2.0	-0.557868325796985
36	120	-2.0	-0.54849591481593
36	103	-8.0	-0.537487900405249
36	91	-3.0	-0.553131189314038
36	92	-9.0	-0.538653096648621
36	104	-1.0	-0.467455553386618
36	93	-1.0	-0.585050198088351
36	80	-4.0	-0.593082151596208
36	105	-4.0	-0.571499311920291
36	108	-1.0	-0.515446642643541
78	42	-2.0	-0.592714079947215
67	41	-4.0	-0.515187989979101
67	42	-6.0	-0.522947432924359
67	43	-3.0	-0.530879896249477
90	41	-1.0	-0.47391856316533
90	42	-4.0	-0.46157696009485
68	41	-5.0	-0.48943531328955
68	42	-7.0	-0.441456038495994
68	43	-4.0	-0.472248327842998
39	70	-2.0	-0.589384863717383
91	42	-1.0	-0.495667647092298
92	41	-1.0	-0.463972183316809
92	42	-4.0	-0.503221346216324
41	79	-1.0	-0.516329547538646
41	93	-1.0	-0.562961535221668
41	80	-1.0	-0.593686723761055
41	69	-6.0	-0.541872045723028
79	42	-3.0	-0.586156622989727
42	69	-23.0	-0.557910861268343
43	69	-4.0	-0.533786238416367
